<?xml version="1.0"?>
<opencv_storage>
<cascade>
  <stageType>BOOST</stageType>
  <featureType>HAAR</featureType>
  <height>24</height>
  <width>24</width>
  <stageParams>
    <boostType>GAB</boostType>
    <minHitRate>9.9500000476837158e-01</minHitRate>
    <maxFalseAlarm>5.0000000000000000e-01</maxFalseAlarm>
    <weightTrimRate>9.4999998807907104e-01</weightTrimRate>
    <maxDepth>1</maxDepth>
    <maxWeakCount>100</maxWeakCount></stageParams>
  <featureParams>
    <maxCatCount>0</maxCatCount>
    <featSize>1</featSize>
    <mode>BASIC</mode></featureParams>
  <stageNum>15</stageNum>
  <stages>
    <!-- stage 0 -->
    <_>
      <maxWeakCount>3</maxWeakCount>
      <stageThreshold>-7.8257930278778076e-01</stageThreshold>
      <weakClassifiers>
        <_>
          <internalNodes>
            0 -1 8 -3.2261562347412109e-01</internalNodes>
          <leafValues>
            9.3442624807357788e-01 -7.6785713434219360e-01</leafValues></_>
        <_>
          <internalNodes>
            0 -1 56 -8.9737330563366413e-04</internalNodes>
          <leafValues>
            6.2326467037200928e-01 -4.8989012837409973e-01</leafValues></_>
        <_>
          <internalNodes>
            0 -1 39 -4.0161609649658203e-03</internalNodes>
          <leafValues>
            6.3829517364501953e-01 -6.3798689842224121e-01</leafValues></_></weakClassifiers></_>
    <!-- stage 1 -->
    <_>
      <maxWeakCount>4</maxWeakCount>
      <stageThreshold>-1.0930110216140747e+00</stageThreshold>
      <weakClassifiers>
        <_>
          <internalNodes>
            0 -1 57 1.0232000052928925e-01</internalNodes>
          <leafValues>
            -7.3459714651107788e-01 5.4054051637649536e-01</leafValues></_>
        <_>
          <internalNodes>
            0 -1 50 -1.0187138803303242e-02</internalNodes>
          <leafValues>
            4.8513877391815186e-01 -6.2234002351760864e-01</leafValues></_>
        <_>
          <internalNodes>
            0 -1 30 -9.9948095157742500e-04</internalNodes>
          <leafValues>
            6.8022155761718750e-01 -4.6428677439689636e-01</leafValues></_>
        <_>
          <internalNodes>
            0 -1 32 5.8647189289331436e-03</internalNodes>
          <leafValues>
            -3.7926590442657471e-01 8.0592077970504761e-01</leafValues></_></weakClassifiers></_>
    <!-- stage 2 -->
    <_>
      <maxWeakCount>4</maxWeakCount>
      <stageThreshold>-9.0319567918777466e-01</stageThreshold>
      <weakClassifiers>
        <_>
          <internalNodes>
            0 -1 36 -1.2757537886500359e-02</internalNodes>
          <leafValues>
            3.4090909361839294e-01 -7.3604059219360352e-01</leafValues></_>
        <_>
          <internalNodes>
            0 -1 49 1.6545739024877548e-02</internalNodes>
          <leafValues>
            -4.5029607415199280e-01 6.1919230222702026e-01</leafValues></_>
        <_>
          <internalNodes>
            0 -1 45 -4.5727007091045380e-03</internalNodes>
          <leafValues>
            7.1862268447875977e-01 -3.7992888689041138e-01</leafValues></_>
        <_>
          <internalNodes>
            0 -1 31 8.0061778426170349e-03</internalNodes>
          <leafValues>
            -4.0029057860374451e-01 6.6306990385055542e-01</leafValues></_></weakClassifiers></_>
    <!-- stage 3 -->
    <_>
      <maxWeakCount>6</maxWeakCount>
      <stageThreshold>-8.3771932125091553e-01</stageThreshold>
      <weakClassifiers>
        <_>
          <internalNodes>
            0 -1 4 -1.4953459799289703e-01</internalNodes>
          <leafValues>
            4.6875000000000000e-01 -6.5610861778259277e-01</leafValues></_>
        <_>
          <internalNodes>
            0 -1 6 -8.1324775237590075e-05</internalNodes>
          <leafValues>
            -8.8252878189086914e-01 1.6060668230056763e-01</leafValues></_>
        <_>
          <internalNodes>
            0 -1 54 -6.8243080750107765e-03</internalNodes>
          <leafValues>
            5.9009611606597900e-01 -3.4272632002830505e-01</leafValues></_>
        <_>
          <internalNodes>
            0 -1 16 1.2825000099837780e-02</internalNodes>
          <leafValues>
            -3.3944174647331238e-01 6.0211682319641113e-01</leafValues></_>
        <_>
          <internalNodes>
            0 -1 5 2.8023024788126349e-04</internalNodes>
          <leafValues>
            2.5509527325630188e-01 -8.2711124420166016e-01</leafValues></_>
        <_>
          <internalNodes>
            0 -1 0 -1.1350532440701500e-04</internalNodes>
          <leafValues>
            -7.6033341884613037e-01 2.3423942923545837e-01</leafValues></_></weakClassifiers></_>
    <!-- stage 4 -->
    <_>
      <maxWeakCount>6</maxWeakCount>
      <stageThreshold>-1.0222455263137817e+00</stageThreshold>
      <weakClassifiers>
        <_>
          <internalNodes>
            0 -1 14 -1.1260600388050079e-01</internalNodes>
          <leafValues>
            5.3846156597137451e-01 -6.1373388767242432e-01</leafValues></_>
        <_>
          <internalNodes>
            0 -1 21 -1.0454104631207883e-04</internalNodes>
          <leafValues>
            -7.2388142347335815e-01 2.5217622518539429e-01</leafValues></_>
        <_>
          <internalNodes>
            0 -1 73 3.1579197384417057e-03</internalNodes>
          <leafValues>
            2.5341007113456726e-01 -6.8826621770858765e-01</leafValues></_>
        <_>
          <internalNodes>
            0 -1 15 3.1370687065646052e-04</internalNodes>
          <leafValues>
            2.8945603966712952e-01 -6.6714012622833252e-01</leafValues></_>
        <_>
          <internalNodes>
            0 -1 18 2.0654528634622693e-04</internalNodes>
          <leafValues>
            2.2988481819629669e-01 -7.6564848423004150e-01</leafValues></_>
        <_>
          <internalNodes>
            0 -1 58 -5.2112748380750418e-04</internalNodes>
          <leafValues>
            5.3815215826034546e-01 -4.2620033025741577e-01</leafValues></_></weakClassifiers></_>
    <!-- stage 5 -->
    <_>
      <maxWeakCount>4</maxWeakCount>
      <stageThreshold>-8.0701541900634766e-01</stageThreshold>
      <weakClassifiers>
        <_>
          <internalNodes>
            0 -1 14 -1.3527360558509827e-01</internalNodes>
          <leafValues>
            8.1818181276321411e-01 -5.6349205970764160e-01</leafValues></_>
        <_>
          <internalNodes>
            0 -1 74 -7.7552125731017441e-05</internalNodes>
          <leafValues>
            -8.0605626106262207e-01 3.1560012698173523e-01</leafValues></_>
        <_>
          <internalNodes>
            0 -1 25 -4.1040673386305571e-04</internalNodes>
          <leafValues>
            -8.8960570096969604e-01 2.4566102027893066e-01</leafValues></_>
        <_>
          <internalNodes>
            0 -1 23 -5.4496325901709497e-05</internalNodes>
          <leafValues>
            -6.7374664545059204e-01 3.3048224449157715e-01</leafValues></_></weakClassifiers></_>
    <!-- stage 6 -->
    <_>
      <maxWeakCount>6</maxWeakCount>
      <stageThreshold>-8.6826074123382568e-01</stageThreshold>
      <weakClassifiers>
        <_>
          <internalNodes>
            0 -1 33 -6.0025155544281006e-02</internalNodes>
          <leafValues>
            7.4358975887298584e-01 -5.8536583185195923e-01</leafValues></_>
        <_>
          <internalNodes>
            0 -1 19 -6.0717158019542694e-02</internalNodes>
          <leafValues>
            7.3202341794967651e-01 -2.9466399550437927e-01</leafValues></_>
        <_>
          <internalNodes>
            0 -1 24 -5.8421986177563667e-03</internalNodes>
          <leafValues>
            6.2314170598983765e-01 -2.8283512592315674e-01</leafValues></_>
        <_>
          <internalNodes>
            0 -1 52 3.3506483305245638e-04</internalNodes>
          <leafValues>
            -2.7586913108825684e-01 5.9142297506332397e-01</leafValues></_>
        <_>
          <internalNodes>
            0 -1 71 -1.6868297825567424e-04</internalNodes>
          <leafValues>
            4.2912015318870544e-01 -4.6309053897857666e-01</leafValues></_>
        <_>
          <internalNodes>
            0 -1 9 3.8480450166389346e-04</internalNodes>
          <leafValues>
            2.7970683574676514e-01 -7.2593891620635986e-01</leafValues></_></weakClassifiers></_>
    <!-- stage 7 -->
    <_>
      <maxWeakCount>6</maxWeakCount>
      <stageThreshold>-9.4217181205749512e-01</stageThreshold>
      <weakClassifiers>
        <_>
          <internalNodes>
            0 -1 44 1.5171483159065247e-01</internalNodes>
          <leafValues>
            -5.4761904478073120e-01 6.9696968793869019e-01</leafValues></_>
        <_>
          <internalNodes>
            0 -1 20 -2.1346635185182095e-03</internalNodes>
          <leafValues>
            4.0034785866737366e-01 -4.0770283341407776e-01</leafValues></_>
        <_>
          <internalNodes>
            0 -1 41 6.1165902297943830e-04</internalNodes>
          <leafValues>
            -4.6558794379234314e-01 4.1936349868774414e-01</leafValues></_>
        <_>
          <internalNodes>
            0 -1 72 1.3166445569368079e-05</internalNodes>
          <leafValues>
            3.4268826246261597e-01 -6.3536161184310913e-01</leafValues></_>
        <_>
          <internalNodes>
            0 -1 67 -8.9015334378927946e-04</internalNodes>
          <leafValues>
            7.5387763977050781e-01 -2.5604525208473206e-01</leafValues></_>
        <_>
          <internalNodes>
            0 -1 42 -3.7054172717034817e-03</internalNodes>
          <leafValues>
            5.9000992774963379e-01 -3.2285729050636292e-01</leafValues></_></weakClassifiers></_>
    <!-- stage 8 -->
    <_>
      <maxWeakCount>6</maxWeakCount>
      <stageThreshold>-8.2298153638839722e-01</stageThreshold>
      <weakClassifiers>
        <_>
          <internalNodes>
            0 -1 63 1.1763525009155273e-01</internalNodes>
          <leafValues>
            -6.6346156597137451e-01 2.9870128631591797e-01</leafValues></_>
        <_>
          <internalNodes>
            0 -1 62 5.5813346989452839e-04</internalNodes>
          <leafValues>
            -4.4095522165298462e-01 4.0148237347602844e-01</leafValues></_>
        <_>
          <internalNodes>
            0 -1 78 2.4987780489027500e-04</internalNodes>
          <leafValues>
            2.2999320924282074e-01 -6.6560506820678711e-01</leafValues></_>
        <_>
          <internalNodes>
            0 -1 61 5.2748119924217463e-04</internalNodes>
          <leafValues>
            -3.3162590861320496e-01 5.5169183015823364e-01</leafValues></_>
        <_>
          <internalNodes>
            0 -1 34 2.6325164362788200e-03</internalNodes>
          <leafValues>
            -2.7874293923377991e-01 6.8000262975692749e-01</leafValues></_>
        <_>
          <internalNodes>
            0 -1 70 -9.8414532840251923e-04</internalNodes>
          <leafValues>
            9.0761828422546387e-01 -1.6834616661071777e-01</leafValues></_></weakClassifiers></_>
    <!-- stage 9 -->
    <_>
      <maxWeakCount>8</maxWeakCount>
      <stageThreshold>-9.7677361965179443e-01</stageThreshold>
      <weakClassifiers>
        <_>
          <internalNodes>
            0 -1 65 1.3372363522648811e-02</internalNodes>
          <leafValues>
            -5.1750969886779785e-01 6.4285713434219360e-01</leafValues></_>
        <_>
          <internalNodes>
            0 -1 51 2.3961944971233606e-03</internalNodes>
          <leafValues>
            -3.7942653894424438e-01 4.0226557850837708e-01</leafValues></_>
        <_>
          <internalNodes>
            0 -1 13 -5.1319941121619195e-05</internalNodes>
          <leafValues>
            -5.5646228790283203e-01 3.2282754778862000e-01</leafValues></_>
        <_>
          <internalNodes>
            0 -1 75 1.3075050082989037e-04</internalNodes>
          <leafValues>
            2.1265517175197601e-01 -7.1581649780273438e-01</leafValues></_>
        <_>
          <internalNodes>
            0 -1 40 -2.5286003947257996e-03</internalNodes>
          <leafValues>
            7.2492223978042603e-01 -2.4066780507564545e-01</leafValues></_>
        <_>
          <internalNodes>
            0 -1 81 1.3693898217752576e-03</internalNodes>
          <leafValues>
            2.8712180256843567e-01 -5.8999466896057129e-01</leafValues></_>
        <_>
          <internalNodes>
            0 -1 10 -6.8158050999045372e-03</internalNodes>
          <leafValues>
            5.9965842962265015e-01 -2.9716584086418152e-01</leafValues></_>
        <_>
          <internalNodes>
            0 -1 66 1.0835248976945877e-02</internalNodes>
          <leafValues>
            -2.6701053977012634e-01 6.0882467031478882e-01</leafValues></_></weakClassifiers></_>
    <!-- stage 10 -->
    <_>
      <maxWeakCount>6</maxWeakCount>
      <stageThreshold>-6.7332905530929565e-01</stageThreshold>
      <weakClassifiers>
        <_>
          <internalNodes>
            0 -1 11 6.4071547240018845e-04</internalNodes>
          <leafValues>
            -9.3167699873447418e-02 -8.0645161867141724e-01</leafValues></_>
        <_>
          <internalNodes>
            0 -1 27 2.3695401847362518e-02</internalNodes>
          <leafValues>
            -4.1326525807380676e-01 4.4951853156089783e-01</leafValues></_>
        <_>
          <internalNodes>
            0 -1 77 8.2762169768102467e-05</internalNodes>
          <leafValues>
            2.2646145522594452e-01 -8.1073760986328125e-01</leafValues></_>
        <_>
          <internalNodes>
            0 -1 82 1.6011256957426667e-04</internalNodes>
          <leafValues>
            1.9584646821022034e-01 -6.8528640270233154e-01</leafValues></_>
        <_>
          <internalNodes>
            0 -1 64 2.1071608643978834e-03</internalNodes>
          <leafValues>
            -2.5385901331901550e-01 6.1791568994522095e-01</leafValues></_>
        <_>
          <internalNodes>
            0 -1 28 2.1936045959591866e-03</internalNodes>
          <leafValues>
            -3.1957632303237915e-01 5.5235415697097778e-01</leafValues></_></weakClassifiers></_>
    <!-- stage 11 -->
    <_>
      <maxWeakCount>7</maxWeakCount>
      <stageThreshold>-1.4232136011123657e+00</stageThreshold>
      <weakClassifiers>
        <_>
          <internalNodes>
            0 -1 69 2.6183664798736572e-02</internalNodes>
          <leafValues>
            -6.6120219230651855e-01 5.8823529630899429e-02</leafValues></_>
        <_>
          <internalNodes>
            0 -1 79 -2.0974857034161687e-04</internalNodes>
          <leafValues>
            -8.3612859249114990e-01 1.0942894965410233e-01</leafValues></_>
        <_>
          <internalNodes>
            0 -1 46 1.1507760973472614e-05</internalNodes>
          <leafValues>
            -3.3239689469337463e-01 5.4640102386474609e-01</leafValues></_>
        <_>
          <internalNodes>
            0 -1 68 -3.5723969631362706e-05</internalNodes>
          <leafValues>
            5.1591765880584717e-01 -3.2937458157539368e-01</leafValues></_>
        <_>
          <internalNodes>
            0 -1 53 -2.7510777581483126e-03</internalNodes>
          <leafValues>
            4.3573030829429626e-01 -3.5036206245422363e-01</leafValues></_>
        <_>
          <internalNodes>
            0 -1 38 -4.1540530510246754e-03</internalNodes>
          <leafValues>
            6.1009693145751953e-01 -3.1324952840805054e-01</leafValues></_>
        <_>
          <internalNodes>
            0 -1 22 -2.5533704087138176e-02</internalNodes>
          <leafValues>
            4.0636444091796875e-01 -4.2485517263412476e-01</leafValues></_></weakClassifiers></_>
    <!-- stage 12 -->
    <_>
      <maxWeakCount>6</maxWeakCount>
      <stageThreshold>-1.3343473672866821e+00</stageThreshold>
      <weakClassifiers>
        <_>
          <internalNodes>
            0 -1 7 -4.9395740032196045e-01</internalNodes>
          <leafValues>
            4.0625000000000000e-01 -6.3800907135009766e-01</leafValues></_>
        <_>
          <internalNodes>
            0 -1 80 -5.1174753025406972e-05</internalNodes>
          <leafValues>
            -7.9943150281906128e-01 1.9274644553661346e-01</leafValues></_>
        <_>
          <internalNodes>
            0 -1 12 -8.3074897702317685e-05</internalNodes>
          <leafValues>
            -6.4795202016830444e-01 1.9094388186931610e-01</leafValues></_>
        <_>
          <internalNodes>
            0 -1 29 -2.1173674613237381e-02</internalNodes>
          <leafValues>
            7.5941932201385498e-01 -2.1962739527225494e-01</leafValues></_>
        <_>
          <internalNodes>
            0 -1 47 -4.8078718828037381e-04</internalNodes>
          <leafValues>
            5.7274097204208374e-01 -2.9054081439971924e-01</leafValues></_>
        <_>
          <internalNodes>
            0 -1 17 -1.7765692609827965e-04</internalNodes>
          <leafValues>
            -6.6572958230972290e-01 2.6903542876243591e-01</leafValues></_></weakClassifiers></_>
    <!-- stage 13 -->
    <_>
      <maxWeakCount>6</maxWeakCount>
      <stageThreshold>-1.1426163911819458e+00</stageThreshold>
      <weakClassifiers>
        <_>
          <internalNodes>
            0 -1 2 -8.4857558249495924e-05</internalNodes>
          <leafValues>
            -7.1428573131561279e-01 -5.9805989604099517e-18</leafValues></_>
        <_>
          <internalNodes>
            0 -1 1 -7.5866133556701243e-05</internalNodes>
          <leafValues>
            -7.0304417610168457e-01 1.9633099436759949e-01</leafValues></_>
        <_>
          <internalNodes>
            0 -1 60 7.2956772055476904e-04</internalNodes>
          <leafValues>
            -3.4555345773696899e-01 5.0781333446502686e-01</leafValues></_>
        <_>
          <internalNodes>
            0 -1 3 -8.7778011220507324e-05</internalNodes>
          <leafValues>
            -5.9144622087478638e-01 3.2917794585227966e-01</leafValues></_>
        <_>
          <internalNodes>
            0 -1 76 -1.2901285117550287e-05</internalNodes>
          <leafValues>
            -6.1870139837265015e-01 2.5985020399093628e-01</leafValues></_>
        <_>
          <internalNodes>
            0 -1 80 3.9450952317565680e-04</internalNodes>
          <leafValues>
            1.9550460577011108e-01 -8.8947421312332153e-01</leafValues></_></weakClassifiers></_>
    <!-- stage 14 -->
    <_>
      <maxWeakCount>7</maxWeakCount>
      <stageThreshold>-7.8365939855575562e-01</stageThreshold>
      <weakClassifiers>
        <_>
          <internalNodes>
            0 -1 55 1.4218160510063171e-01</internalNodes>
          <leafValues>
            -5.5371898412704468e-01 4.4186046719551086e-01</leafValues></_>
        <_>
          <internalNodes>
            0 -1 48 3.6590069066733122e-03</internalNodes>
          <leafValues>
            -2.1786771714687347e-01 7.7028077840805054e-01</leafValues></_>
        <_>
          <internalNodes>
            0 -1 26 -3.0690355226397514e-02</internalNodes>
          <leafValues>
            4.2602747678756714e-01 -3.9991995692253113e-01</leafValues></_>
        <_>
          <internalNodes>
            0 -1 59 8.6763547733426094e-04</internalNodes>
          <leafValues>
            -2.6968556642532349e-01 5.4373085498809814e-01</leafValues></_>
        <_>
          <internalNodes>
            0 -1 35 -8.2589103840291500e-04</internalNodes>
          <leafValues>
            4.2364284396171570e-01 -3.5082578659057617e-01</leafValues></_>
        <_>
          <internalNodes>
            0 -1 43 4.6154943993315101e-04</internalNodes>
          <leafValues>
            -2.6760208606719971e-01 5.9140712022781372e-01</leafValues></_>
        <_>
          <internalNodes>
            0 -1 37 -2.3119859397411346e-03</internalNodes>
          <leafValues>
            5.2280646562576294e-01 -3.2445535063743591e-01</leafValues></_></weakClassifiers></_></stages>
  <features>
    <_>
      <rects>
        <_>
          0 0 1 9 -1.</_>
        <_>
          0 3 1 3 3.</_></rects>
      <tilted>0</tilted></_>
    <_>
      <rects>
        <_>
          0 1 2 3 -1.</_>
        <_>
          0 2 2 1 3.</_></rects>
      <tilted>0</tilted></_>
    <_>
      <rects>
        <_>
          0 2 1 8 -1.</_>
        <_>
          0 6 1 4 2.</_></rects>
      <tilted>0</tilted></_>
    <_>
      <rects>
        <_>
          0 2 4 3 -1.</_>
        <_>
          0 3 4 1 3.</_></rects>
      <tilted>0</tilted></_>
    <_>
      <rects>
        <_>
          0 2 10 20 -1.</_>
        <_>
          5 2 5 20 2.</_></rects>
      <tilted>0</tilted></_>
    <_>
      <rects>
        <_>
          0 3 1 3 -1.</_>
        <_>
          0 4 1 1 3.</_></rects>
      <tilted>0</tilted></_>
    <_>
      <rects>
        <_>
          0 3 2 3 -1.</_>
        <_>
          0 4 2 1 3.</_></rects>
      <tilted>0</tilted></_>
    <_>
      <rects>
        <_>
          0 3 24 19 -1.</_>
        <_>
          8 3 8 19 3.</_></rects>
      <tilted>0</tilted></_>
    <_>
      <rects>
        <_>
          0 4 24 19 -1.</_>
        <_>
          8 4 8 19 3.</_></rects>
      <tilted>0</tilted></_>
    <_>
      <rects>
        <_>
          0 6 1 6 -1.</_>
        <_>
          0 9 1 3 2.</_></rects>
      <tilted>0</tilted></_>
    <_>
      <rects>
        <_>
          0 8 10 4 -1.</_>
        <_>
          0 8 5 2 2.</_>
        <_>
          5 10 5 2 2.</_></rects>
      <tilted>0</tilted></_>
    <_>
      <rects>
        <_>
          0 10 1 9 -1.</_>
        <_>
          0 13 1 3 3.</_></rects>
      <tilted>0</tilted></_>
    <_>
      <rects>
        <_>
          0 11 1 2 -1.</_>
        <_>
          0 12 1 1 2.</_></rects>
      <tilted>0</tilted></_>
    <_>
      <rects>
        <_>
          0 12 1 6 -1.</_>
        <_>
          0 14 1 2 3.</_></rects>
      <tilted>0</tilted></_>
    <_>
      <rects>
        <_>
          0 12 24 3 -1.</_>
        <_>
          8 12 8 3 3.</_></rects>
      <tilted>0</tilted></_>
    <_>
      <rects>
        <_>
          0 17 4 3 -1.</_>
        <_>
          0 18 4 1 3.</_></rects>
      <tilted>0</tilted></_>
    <_>
      <rects>
        <_>
          0 17 17 6 -1.</_>
        <_>
          0 20 17 3 2.</_></rects>
      <tilted>0</tilted></_>
    <_>
      <rects>
        <_>
          1 0 2 3 -1.</_>
        <_>
          1 1 2 1 3.</_></rects>
      <tilted>0</tilted></_>
    <_>
      <rects>
        <_>
          1 2 4 2 -1.</_>
        <_>
          1 2 2 1 2.</_>
        <_>
          3 3 2 1 2.</_></rects>
      <tilted>0</tilted></_>
    <_>
      <rects>
        <_>
          1 2 12 14 -1.</_>
        <_>
          1 2 6 7 2.</_>
        <_>
          7 9 6 7 2.</_></rects>
      <tilted>0</tilted></_>
    <_>
      <rects>
        <_>
          1 3 17 2 -1.</_>
        <_>
          1 4 17 1 2.</_></rects>
      <tilted>0</tilted></_>
    <_>
      <rects>
        <_>
          2 1 2 3 -1.</_>
        <_>
          3 1 1 3 2.</_></rects>
      <tilted>0</tilted></_>
    <_>
      <rects>
        <_>
          2 2 13 6 -1.</_>
        <_>
          2 5 13 3 2.</_></rects>
      <tilted>0</tilted></_>
    <_>
      <rects>
        <_>
          2 4 1 2 -1.</_>
        <_>
          2 5 1 1 2.</_></rects>
      <tilted>0</tilted></_>
    <_>
      <rects>
        <_>
          2 9 4 8 -1.</_>
        <_>
          4 9 2 8 2.</_></rects>
      <tilted>0</tilted></_>
    <_>
      <rects>
        <_>
          3 0 4 1 -1.</_>
        <_>
          5 0 2 1 2.</_></rects>
      <tilted>0</tilted></_>
    <_>
      <rects>
        <_>
          3 9 21 2 -1.</_>
        <_>
          10 9 7 2 3.</_></rects>
      <tilted>0</tilted></_>
    <_>
      <rects>
        <_>
          3 11 10 12 -1.</_>
        <_>
          3 11 5 6 2.</_>
        <_>
          8 17 5 6 2.</_></rects>
      <tilted>0</tilted></_>
    <_>
      <rects>
        <_>
          4 3 14 4 -1.</_>
        <_>
          4 3 7 2 2.</_>
        <_>
          11 5 7 2 2.</_></rects>
      <tilted>0</tilted></_>
    <_>
      <rects>
        <_>
          4 10 6 10 -1.</_>
        <_>
          6 10 2 10 3.</_></rects>
      <tilted>0</tilted></_>
    <_>
      <rects>
        <_>
          4 16 2 8 -1.</_>
        <_>
          5 16 1 8 2.</_></rects>
      <tilted>0</tilted></_>
    <_>
      <rects>
        <_>
          4 17 14 6 -1.</_>
        <_>
          4 17 7 3 2.</_>
        <_>
          11 20 7 3 2.</_></rects>
      <tilted>0</tilted></_>
    <_>
      <rects>
        <_>
          4 19 10 4 -1.</_>
        <_>
          4 19 5 2 2.</_>
        <_>
          9 21 5 2 2.</_></rects>
      <tilted>0</tilted></_>
    <_>
      <rects>
        <_>
          5 0 12 6 -1.</_>
        <_>
          5 3 12 3 2.</_></rects>
      <tilted>0</tilted></_>
    <_>
      <rects>
        <_>
          5 8 2 6 -1.</_>
        <_>
          5 11 2 3 2.</_></rects>
      <tilted>0</tilted></_>
    <_>
      <rects>
        <_>
          5 13 16 3 -1.</_>
        <_>
          5 14 16 1 3.</_></rects>
      <tilted>0</tilted></_>
    <_>
      <rects>
        <_>
          6 0 9 6 -1.</_>
        <_>
          6 3 9 3 2.</_></rects>
      <tilted>0</tilted></_>
    <_>
      <rects>
        <_>
          6 2 12 2 -1.</_>
        <_>
          6 3 12 1 2.</_></rects>
      <tilted>0</tilted></_>
    <_>
      <rects>
        <_>
          6 3 3 12 -1.</_>
        <_>
          7 3 1 12 3.</_></rects>
      <tilted>0</tilted></_>
    <_>
      <rects>
        <_>
          6 12 9 4 -1.</_>
        <_>
          9 12 3 4 3.</_></rects>
      <tilted>0</tilted></_>
    <_>
      <rects>
        <_>
          7 8 6 2 -1.</_>
        <_>
          7 8 3 1 2.</_>
        <_>
          10 9 3 1 2.</_></rects>
      <tilted>0</tilted></_>
    <_>
      <rects>
        <_>
          7 9 6 2 -1.</_>
        <_>
          7 9 3 1 2.</_>
        <_>
          10 10 3 1 2.</_></rects>
      <tilted>0</tilted></_>
    <_>
      <rects>
        <_>
          7 19 9 1 -1.</_>
        <_>
          10 19 3 1 3.</_></rects>
      <tilted>0</tilted></_>
    <_>
      <rects>
        <_>
          8 2 5 2 -1.</_>
        <_>
          8 3 5 1 2.</_></rects>
      <tilted>0</tilted></_>
    <_>
      <rects>
        <_>
          8 12 10 12 -1.</_>
        <_>
          8 18 10 6 2.</_></rects>
      <tilted>0</tilted></_>
    <_>
      <rects>
        <_>
          8 20 10 4 -1.</_>
        <_>
          8 20 5 2 2.</_>
        <_>
          13 22 5 2 2.</_></rects>
      <tilted>0</tilted></_>
    <_>
      <rects>
        <_>
          9 5 1 2 -1.</_>
        <_>
          9 6 1 1 2.</_></rects>
      <tilted>0</tilted></_>
    <_>
      <rects>
        <_>
          9 20 4 2 -1.</_>
        <_>
          9 20 2 1 2.</_>
        <_>
          11 21 2 1 2.</_></rects>
      <tilted>0</tilted></_>
    <_>
      <rects>
        <_>
          10 0 3 4 -1.</_>
        <_>
          10 2 3 2 2.</_></rects>
      <tilted>0</tilted></_>
    <_>
      <rects>
        <_>
          10 2 14 8 -1.</_>
        <_>
          10 2 7 4 2.</_>
        <_>
          17 6 7 4 2.</_></rects>
      <tilted>0</tilted></_>
    <_>
      <rects>
        <_>
          10 2 12 6 -1.</_>
        <_>
          10 5 12 3 2.</_></rects>
      <tilted>0</tilted></_>
    <_>
      <rects>
        <_>
          10 4 14 2 -1.</_>
        <_>
          10 4 7 1 2.</_>
        <_>
          17 5 7 1 2.</_></rects>
      <tilted>0</tilted></_>
    <_>
      <rects>
        <_>
          10 6 4 2 -1.</_>
        <_>
          10 6 2 1 2.</_>
        <_>
          12 7 2 1 2.</_></rects>
      <tilted>0</tilted></_>
    <_>
      <rects>
        <_>
          11 3 4 18 -1.</_>
        <_>
          11 3 2 9 2.</_>
        <_>
          13 12 2 9 2.</_></rects>
      <tilted>0</tilted></_>
    <_>
      <rects>
        <_>
          11 3 3 6 -1.</_>
        <_>
          11 5 3 2 3.</_></rects>
      <tilted>0</tilted></_>
    <_>
      <rects>
        <_>
          11 10 10 14 -1.</_>
        <_>
          11 17 10 7 2.</_></rects>
      <tilted>0</tilted></_>
    <_>
      <rects>
        <_>
          11 15 6 1 -1.</_>
        <_>
          13 15 2 1 3.</_></rects>
      <tilted>0</tilted></_>
    <_>
      <rects>
        <_>
          12 5 12 13 -1.</_>
        <_>
          18 5 6 13 2.</_></rects>
      <tilted>0</tilted></_>
    <_>
      <rects>
        <_>
          12 8 1 3 -1.</_>
        <_>
          12 9 1 1 3.</_></rects>
      <tilted>0</tilted></_>
    <_>
      <rects>
        <_>
          12 8 2 4 -1.</_>
        <_>
          12 10 2 2 2.</_></rects>
      <tilted>0</tilted></_>
    <_>
      <rects>
        <_>
          12 9 6 2 -1.</_>
        <_>
          12 9 3 1 2.</_>
        <_>
          15 10 3 1 2.</_></rects>
      <tilted>0</tilted></_>
    <_>
      <rects>
        <_>
          13 13 8 3 -1.</_>
        <_>
          13 14 8 1 3.</_></rects>
      <tilted>0</tilted></_>
    <_>
      <rects>
        <_>
          14 3 3 13 -1.</_>
        <_>
          15 3 1 13 3.</_></rects>
      <tilted>0</tilted></_>
    <_>
      <rects>
        <_>
          14 3 10 19 -1.</_>
        <_>
          19 3 5 19 2.</_></rects>
      <tilted>0</tilted></_>
    <_>
      <rects>
        <_>
          14 7 4 4 -1.</_>
        <_>
          14 7 2 2 2.</_>
        <_>
          16 9 2 2 2.</_></rects>
      <tilted>0</tilted></_>
    <_>
      <rects>
        <_>
          14 15 1 8 -1.</_>
        <_>
          14 19 1 4 2.</_></rects>
      <tilted>0</tilted></_>
    <_>
      <rects>
        <_>
          14 15 4 6 -1.</_>
        <_>
          16 15 2 6 2.</_></rects>
      <tilted>0</tilted></_>
    <_>
      <rects>
        <_>
          15 21 2 3 -1.</_>
        <_>
          15 22 2 1 3.</_></rects>
      <tilted>0</tilted></_>
    <_>
      <rects>
        <_>
          16 3 2 2 -1.</_>
        <_>
          16 3 1 1 2.</_>
        <_>
          17 4 1 1 2.</_></rects>
      <tilted>0</tilted></_>
    <_>
      <rects>
        <_>
          16 11 8 10 -1.</_>
        <_>
          20 11 4 10 2.</_></rects>
      <tilted>0</tilted></_>
    <_>
      <rects>
        <_>
          16 14 2 2 -1.</_>
        <_>
          16 14 1 1 2.</_>
        <_>
          17 15 1 1 2.</_></rects>
      <tilted>0</tilted></_>
    <_>
      <rects>
        <_>
          17 17 2 4 -1.</_>
        <_>
          17 17 1 2 2.</_>
        <_>
          18 19 1 2 2.</_></rects>
      <tilted>0</tilted></_>
    <_>
      <rects>
        <_>
          18 0 6 1 -1.</_>
        <_>
          21 0 3 1 2.</_></rects>
      <tilted>0</tilted></_>
    <_>
      <rects>
        <_>
          18 1 5 16 -1.</_>
        <_>
          18 9 5 8 2.</_></rects>
      <tilted>0</tilted></_>
    <_>
      <rects>
        <_>
          19 0 3 1 -1.</_>
        <_>
          20 0 1 1 3.</_></rects>
      <tilted>0</tilted></_>
    <_>
      <rects>
        <_>
          20 0 2 2 -1.</_>
        <_>
          20 0 1 1 2.</_>
        <_>
          21 1 1 1 2.</_></rects>
      <tilted>0</tilted></_>
    <_>
      <rects>
        <_>
          20 23 3 1 -1.</_>
        <_>
          21 23 1 1 3.</_></rects>
      <tilted>0</tilted></_>
    <_>
      <rects>
        <_>
          22 0 2 2 -1.</_>
        <_>
          22 0 1 1 2.</_>
        <_>
          23 1 1 1 2.</_></rects>
      <tilted>0</tilted></_>
    <_>
      <rects>
        <_>
          22 7 2 3 -1.</_>
        <_>
          22 8 2 1 3.</_></rects>
      <tilted>0</tilted></_>
    <_>
      <rects>
        <_>
          23 0 1 3 -1.</_>
        <_>
          23 1 1 1 3.</_></rects>
      <tilted>0</tilted></_>
    <_>
      <rects>
        <_>
          23 1 1 3 -1.</_>
        <_>
          23 2 1 1 3.</_></rects>
      <tilted>0</tilted></_>
    <_>
      <rects>
        <_>
          23 3 1 20 -1.</_>
        <_>
          23 13 1 10 2.</_></rects>
      <tilted>0</tilted></_>
    <_>
      <rects>
        <_>
          23 9 1 4 -1.</_>
        <_>
          23 11 1 2 2.</_></rects>
      <tilted>0</tilted></_></features></cascade>
</opencv_storage>
